<?xml version="1.0"?>
<opencv_storage>
<my_svm type_id="opencv-ml-svm">
  <svm_type>C_SVC</svm_type>
  <kernel><type>RBF</type>
    <gamma>5.0625000000000009e-001</gamma></kernel>
  <C>3.1250000000000000e+002</C>
  <term_criteria><epsilon>2.2204460492503131e-016</epsilon>
    <iterations>1000000</iterations></term_criteria>
  <var_all>13</var_all>
  <var_count>13</var_count>
  <class_count>2</class_count>
  <class_labels type_id="opencv-matrix">
    <rows>1</rows>
    <cols>2</cols>
    <dt>i</dt>
    <data>
      0 1</data></class_labels>
  <sv_total>77</sv_total>
  <support_vectors>
    <_>
      5.66423714e-001 1.35682300e-001 9.80183125e-001 5.29422939e-001
      9.83366489e-001 7.19999075e-001 5.50904036e-001 6.46745205e-001
      6.30344212e-001 1.64354011e-001 3.56634259e-001 1.04552306e-001
      9.99524653e-001</_>
    <_>
      4.19584602e-001 1.70096681e-001 9.89153445e-001 5.25185823e-001
      9.77418721e-001 6.98481977e-001 5.44296324e-001 7.70032167e-001
      7.50913680e-001 1.92382216e-001 4.23332751e-001 1.07304230e-001
      9.99883294e-001</_>
    <_>
      4.82917100e-001 3.04718345e-001 9.71538723e-001 6.98172212e-001
      9.55162764e-001 8.21990848e-001 6.97673202e-001 7.80590773e-001
      7.73503184e-001 3.03317875e-001 6.39084995e-001 2.08103284e-001
      9.99844253e-001</_>
    <_>
      6.29939854e-001 1.40721083e-001 9.79055941e-001 5.02270222e-001
      9.82274950e-001 7.00709224e-001 5.24315715e-001 6.54957831e-001
      6.38329625e-001 1.68174863e-001 3.67900461e-001 1.11155592e-001
      9.99552310e-001</_>
    <_>
      4.20533806e-001 2.12583676e-001 9.87805426e-001 5.85038960e-001
      9.70394254e-001 7.35589027e-001 5.98799288e-001 8.08742225e-001
      7.91819453e-001 2.27393344e-001 4.97468531e-001 1.26487657e-001
      9.99921739e-001</_>
    <_>
      4.18393403e-001 2.01811224e-001 9.84584391e-001 4.57709432e-001
      9.72175181e-001 6.50642991e-001 4.78204042e-001 8.02280307e-001
      7.84648120e-001 2.18516186e-001 4.79276717e-001 1.24527007e-001
      9.99915242e-001</_>
    <_>
      3.45074683e-001 2.25230798e-001 9.87076163e-001 4.57277060e-001
      9.68303502e-001 6.39842927e-001 4.75990146e-001 8.56211603e-001
      8.38310838e-001 2.37815350e-001 5.18343747e-001 1.30322963e-001
      9.99957681e-001</_>
    <_>
      7.30146050e-001 1.52077615e-001 9.86987650e-001 5.78149140e-001
      9.80396986e-001 7.43885815e-001 5.94412506e-001 6.33078158e-001
      6.18494213e-001 1.77532703e-001 3.89779031e-001 1.21156752e-001
      9.99414980e-001</_>
    <_>
      4.35619980e-001 1.89402819e-001 9.87967491e-001 5.76614738e-001
      9.74298596e-001 7.33868718e-001 5.91993570e-001 7.92300701e-001
      7.74131954e-001 2.08381757e-001 4.57769096e-001 1.19870938e-001
      9.99905825e-001</_>
    <_>
      5.82913637e-001 1.68723911e-001 9.79323089e-001 6.01001918e-001
      9.77645099e-001 7.66051173e-001 6.16164207e-001 6.93637311e-001
      6.77854538e-001 1.91250250e-001 4.20820832e-001 1.27417371e-001
      9.99691308e-001</_>
    <_>
      2.78674096e-001 1.64608300e-001 9.95620668e-001 4.95441169e-001
      9.78392005e-001 6.43802524e-001 5.14552116e-001 9.11991477e-001
      8.86047244e-001 1.87943488e-001 4.13106203e-001 7.85385445e-002
      9.99990702e-001</_>
    <_>
      3.49940658e-001 1.54760912e-001 9.93443847e-001 4.92163122e-001
      9.79954243e-001 6.61014855e-001 5.13291001e-001 8.44276309e-001
      8.20361376e-001 1.79744944e-001 3.94867659e-001 8.38276818e-002
      9.99961853e-001</_>
    <_>
      6.24833524e-001 2.80809730e-001 9.31551158e-001 5.72136402e-001
      9.59118068e-001 7.55383730e-001 5.75338721e-001 6.19473875e-001
      6.17492735e-001 2.83619165e-001 6.04535580e-001 2.62398928e-001
      9.98974919e-001</_>
    <_>
      3.16696048e-001 1.84486732e-001 9.91247058e-001 5.18160224e-001
      9.75039840e-001 6.81504369e-001 5.36774397e-001 8.70204806e-001
      8.47882271e-001 2.04240546e-001 4.49181378e-001 1.01170465e-001
      9.99971688e-001</_>
    <_>
      4.19560403e-001 3.27402949e-001 9.58783627e-001 5.29265106e-001
      9.51413870e-001 7.15229452e-001 5.37257195e-001 7.85662353e-001
      7.80464053e-001 3.22012931e-001 6.70649052e-001 2.28711888e-001
      9.99840200e-001</_>
    <_>
      3.35486889e-001 1.70271665e-001 9.92746830e-001 4.67125952e-001
      9.77396727e-001 6.39903903e-001 4.88033861e-001 8.55156720e-001
      8.32208693e-001 1.92535102e-001 4.23664778e-001 9.30938944e-002
      9.99965787e-001</_>
    <_>
      5.01573145e-001 1.50844783e-001 9.90694344e-001 4.94383931e-001
      9.80600893e-001 6.74785078e-001 5.16192853e-001 7.22708762e-001
      7.03947663e-001 1.76516905e-001 3.87433141e-001 9.22444984e-002
      9.99810100e-001</_>
    <_>
      6.48919225e-001 2.45564640e-001 9.43517327e-001 3.31867158e-001
      9.64941919e-001 5.69124043e-001 3.51058036e-001 6.29974902e-001
      6.24228954e-001 2.54571646e-001 5.50878465e-001 2.22191423e-001
      9.99172509e-001</_>
    <_>
      4.69814599e-001 1.87713966e-001 9.86239791e-001 4.95891720e-001
      9.74505663e-001 6.79254830e-001 5.14758527e-001 7.59386659e-001
      7.42389679e-001 2.06899211e-001 4.54866111e-001 1.25198334e-001
      9.99856234e-001</_>
    <_>
      6.44145191e-001 1.59183428e-001 9.76209939e-001 5.46242416e-001
      9.79222298e-001 7.32288182e-001 5.64433932e-001 6.53794050e-001
      6.38932168e-001 1.83388323e-001 4.03174281e-001 1.29240558e-001
      9.99517500e-001</_>
    <_>
      5.17043173e-001 1.84672773e-001 9.81257379e-001 4.94951904e-001
      9.75008845e-001 6.87143266e-001 5.14179170e-001 7.22722828e-001
      7.07108855e-001 2.04393610e-001 4.49509263e-001 1.32703751e-001
      9.99773324e-001</_>
    <_>
      3.30630183e-001 2.19457790e-001 9.89497125e-001 5.04158199e-001
      9.69257891e-001 6.69681013e-001 5.21008193e-001 8.79942656e-001
      8.60427320e-001 2.33058035e-001 5.08877873e-001 1.22381486e-001
      9.99972105e-001</_>
    <_>
      5.75739086e-001 2.96171963e-001 9.34921801e-001 6.04057133e-001
      9.56579328e-001 7.75539756e-001 6.05085969e-001 6.46950126e-001
      6.45153642e-001 2.96279758e-001 6.26913607e-001 2.62363166e-001
      9.99226689e-001</_>
    <_>
      6.68437302e-001 2.17995584e-001 9.59481895e-001 6.59978867e-001
      9.69499588e-001 8.09681833e-001 6.65912867e-001 6.56165302e-001
      6.46663785e-001 2.31853098e-001 5.06463706e-001 1.87049448e-001
      9.99431849e-001</_>
    <_>
      4.10821110e-001 2.06672043e-001 9.83926177e-001 5.66206455e-001
      9.71372843e-001 7.30762839e-001 5.81339002e-001 8.03651452e-001
      7.86410272e-001 2.22523347e-001 4.87541318e-001 1.32191882e-001
      9.99913037e-001</_>
    <_>
      5.59718370e-001 1.96509048e-001 9.75497246e-001 4.96945441e-001
      9.73052859e-001 6.92838430e-001 5.14741182e-001 7.00493634e-001
      6.86991751e-001 2.14148313e-001 4.70185012e-001 1.51218921e-001
      9.99687850e-001</_>
    <_>
      4.52698350e-001 2.10359901e-001 9.80278015e-001 5.92529535e-001
      9.70761895e-001 7.54247606e-001 6.06050670e-001 7.71469653e-001
      7.56030917e-001 2.25560829e-001 4.93744820e-001 1.40134737e-001
      9.99867260e-001</_>
    <_>
      8.30701232e-001 3.34999822e-002 9.94787633e-001 6.63103878e-001 1.
      8.14735293e-001 6.89803064e-001 5.10217369e-001 4.90178198e-001
      7.98175782e-002 1.19009309e-001 9.09338333e-003 9.98415828e-001</_>
    <_>
      6.42004192e-001 1.60227165e-001 9.85211074e-001 4.79049355e-001
      9.79063392e-001 6.73795044e-001 4.99916494e-001 6.73874736e-001
      6.58235908e-001 1.84265628e-001 4.05127734e-001 1.21115275e-001
      9.99625742e-001</_>
    <_>
      4.14456517e-001 1.49713486e-001 9.88939047e-001 4.32228297e-001
      9.80788052e-001 6.31052852e-001 4.57125098e-001 8.01013172e-001
      7.78594315e-001 1.75584823e-001 3.85274470e-001 8.86225179e-002
      9.99927640e-001</_>
    <_>
      3.97782415e-001 1.65548757e-001 9.89024520e-001 5.34829378e-001
      9.78173673e-001 7.07099438e-001 5.54752886e-001 8.12688828e-001
      7.91207731e-001 1.88638344e-001 4.15002435e-001 9.63582620e-002
      9.99935687e-001</_>
    <_>
      5.99393487e-001 1.61120981e-001 9.73138809e-001 5.07083774e-001
      9.78901982e-001 7.05475450e-001 5.26652932e-001 6.42018318e-001
      6.27872229e-001 1.84984982e-001 4.06788915e-001 1.34842172e-001
      9.99440432e-001</_>
    <_>
      4.93310094e-001 1.82045102e-001 9.77487445e-001 3.98302674e-001
      9.75489676e-001 6.15669608e-001 4.21635985e-001 7.15896845e-001
      7.00415909e-001 2.02286035e-001 4.44859713e-001 1.34133145e-001
      9.99753356e-001</_>
    <_>
      4.90324050e-001 1.29266679e-001 9.87502456e-001 5.25021970e-001
      9.84570622e-001 7.10166156e-001 5.48022568e-001 7.16685414e-001
      6.96682751e-001 1.59251004e-001 3.42765898e-001 8.39500576e-002
      9.99802113e-001</_>
    <_>
      3.96902144e-001 3.24796051e-001 9.64718580e-001 5.49658716e-001
      9.51844811e-001 7.26206779e-001 5.57574689e-001 8.20695877e-001
      8.13658595e-001 3.19864631e-001 6.67081773e-001 2.13792264e-001
      9.99899209e-001</_>
    <_>
      6.48868203e-001 2.24182770e-001 9.55250323e-001 5.74494004e-001
      9.68476772e-001 7.54899442e-001 5.84389746e-001 6.29366040e-001
      6.21659815e-001 2.36951709e-001 5.16633034e-001 1.96599483e-001
      9.99228776e-001</_>
    <_>
      4.50256526e-001 1.70555055e-001 9.88586485e-001 4.10796642e-001
      9.77342367e-001 6.09754860e-001 4.34111387e-001 7.72459328e-001
      7.53273964e-001 1.92759231e-001 4.24165010e-001 1.08215690e-001
      9.99886036e-001</_>
    <_>
      3.57774854e-001 2.23292798e-001 9.87533748e-001 5.81272781e-001
      9.68624115e-001 7.32953906e-001 5.94773173e-001 8.54492605e-001
      8.36483896e-001 2.36218631e-001 5.15179932e-001 1.29730001e-001
      9.99956787e-001</_>
    <_>
      4.89502937e-001 2.69548267e-001 9.68407154e-001 5.93452275e-001
      9.60977554e-001 7.58847475e-001 6.01365566e-001 7.43636370e-001
      7.34967053e-001 2.74336308e-001 5.87743282e-001 1.95883319e-001
      9.99773860e-001</_>
    <_>
      4.78969723e-001 1.71894222e-001 9.78341758e-001 5.58286309e-001
      9.77120996e-001 7.37310767e-001 5.75841308e-001 7.15310752e-001
      6.98842347e-001 1.93862781e-001 4.26602185e-001 1.25835851e-001
      9.99759138e-001</_>
    <_>
      5.05626500e-001 1.79571778e-001 9.78439987e-001 4.19421613e-001
      9.75903511e-001 6.32326722e-001 4.42224234e-001 7.12884843e-001
      6.97321713e-001 2.00254112e-001 4.40439999e-001 1.31324545e-001
      9.99748111e-001</_>
    <_>
      6.22021317e-001 1.84027880e-001 9.63962853e-001 4.98746991e-001
      9.77060616e-001 7.01510012e-001 5.17318189e-001 6.38914168e-001
      6.28492236e-001 2.06385121e-001 4.35964882e-001 1.51254341e-001
      9.99403715e-001</_>
    <_>
      3.85899156e-001 1.92725956e-001 9.87474203e-001 5.10836244e-001
      9.76256967e-001 6.80705130e-001 5.29528916e-001 8.31716299e-001
      8.13704491e-001 2.14385077e-001 4.46825117e-001 1.03724957e-001
      9.99950647e-001</_>
    <_>
      4.51735467e-001 1.49549708e-001 9.86578703e-001 5.34647942e-001
      9.81043994e-001 7.15989411e-001 5.55617452e-001 7.40156054e-001
      7.20729649e-001 1.75737187e-001 3.84138018e-001 9.63148773e-002
      9.99841630e-001</_>
    <_>
      3.56720597e-001 1.81863829e-001 9.88804579e-001 5.91793954e-001
      9.76632655e-001 7.42240608e-001 6.08431756e-001 8.55038822e-001
      8.34594607e-001 2.03539506e-001 4.38900501e-001 9.68603417e-002
      9.99966025e-001</_>
    <_>
      3.75081062e-001 2.19329789e-001 9.83414471e-001 4.59143400e-001
      9.70878541e-001 6.50946975e-001 4.79011655e-001 8.23097885e-001
      8.07748854e-001 2.34965965e-001 5.02024114e-001 1.28900915e-001
      9.99935627e-001</_>
    <_>
      6.07984066e-001 2.01350465e-001 9.69174027e-001 3.43207687e-001
      9.74398434e-001 5.72427511e-001 3.67223531e-001 6.69659138e-001
      6.59334183e-001 2.20871016e-001 4.66800839e-001 1.51050985e-001
      9.99575615e-001</_>
    <_>
      3.60586017e-001 1.88614264e-001 9.88357961e-001 4.98029470e-001
      9.77241397e-001 6.75751030e-001 5.19108534e-001 8.40943098e-001
      8.22410345e-001 2.11403310e-001 4.36819017e-001 9.72701162e-002
      9.99958694e-001</_>
    <_>
      3.66391242e-001 1.69228584e-001 9.89350259e-001 4.89627361e-001
      9.78932798e-001 6.70301795e-001 5.11497974e-001 8.27935994e-001
      8.07612777e-001 1.93399593e-001 4.14036781e-001 9.10089314e-002
      9.99951005e-001</_>
    <_>
      3.71781975e-001 1.50010437e-001 9.94242072e-001 4.52674329e-001
      9.81898665e-001 6.24524295e-001 4.75264251e-001 8.34767997e-001
      8.11931849e-001 1.77328736e-001 3.78007084e-001 7.38753751e-002
      9.99960005e-001</_>
    <_>
      6.35953665e-001 1.85431018e-001 9.73685443e-001 5.26887357e-001
      9.76930201e-001 7.17021585e-001 5.44950247e-001 6.60570979e-001
      6.49617136e-001 2.07591251e-001 4.39469635e-001 1.36306033e-001
      9.99557674e-001</_>
    <_>
      6.95998311e-001 1.63176224e-001 9.71001744e-001 5.39731741e-001
      9.80655491e-001 7.28734732e-001 5.58380425e-001 6.19890094e-001
      6.08876407e-001 1.89320996e-001 3.97036850e-001 1.27934292e-001
      9.99330640e-001</_>
    <_>
      4.71992671e-001 4.07713890e-001 9.31924820e-001 6.24804080e-001
      9.41013873e-001 7.85513163e-001 6.20546043e-001 7.45797932e-001
      7.53399670e-001 3.91834587e-001 7.69891143e-001 2.95062870e-001
      9.99710441e-001</_>
    <_>
      3.14168423e-001 2.26513043e-001 9.90375578e-001 5.25793135e-001
      9.70886469e-001 6.82988822e-001 5.42508900e-001 8.70401263e-001
      8.54284585e-001 2.42496118e-001 5.04833758e-001 1.13538526e-001
      9.99971509e-001</_>
    <_>
      3.81189734e-001 1.67043597e-001 9.88986373e-001 4.55310434e-001
      9.79843736e-001 6.46096528e-001 4.78768855e-001 8.09860229e-001
      7.90356219e-001 1.92308515e-001 4.05479580e-001 9.10553932e-002
      9.99937296e-001</_>
    <_>
      4.41803366e-001 2.46387377e-001 9.73122001e-001 5.48310816e-001
      9.66411471e-001 7.27157533e-001 5.61379015e-001 7.66566873e-001
      7.55761623e-001 2.57362753e-001 5.43971360e-001 1.68189004e-001
      9.99844909e-001</_>
    <_>
      6.74881399e-001 1.85047075e-001 9.57944214e-001 5.66525400e-001
      9.77212131e-001 7.51078188e-001 5.80830216e-001 6.03033900e-001
      5.94481409e-001 2.07631528e-001 4.35628027e-001 1.61680266e-001
      9.99099553e-001</_>
    <_>
      4.69640017e-001 2.39985988e-001 9.72078800e-001 5.15402138e-001
      9.67025757e-001 7.03719258e-001 5.30453861e-001 7.63588130e-001
      7.52237320e-001 2.51470178e-001 5.37368298e-001 1.65066198e-001
      9.99841034e-001</_>
    <_>
      4.56037432e-001 2.40753874e-001 9.74906564e-001 5.47790885e-001
      9.66941893e-001 7.25576103e-001 5.61442792e-001 7.72213101e-001
      7.60616183e-001 2.52164334e-001 5.38209319e-001 1.62473306e-001
      9.99857783e-001</_>
    <_>
      5.47816396e-001 2.62513041e-001 9.61854458e-001 5.21475315e-001
      9.64765906e-001 7.12889612e-001 5.33942819e-001 7.11716056e-001
      7.05576301e-001 2.71936029e-001 5.64956784e-001 1.93571210e-001
      9.99690890e-001</_>
    <_>
      5.59105873e-001 1.28279209e-001 9.82200861e-001 5.51597834e-001
      9.85270679e-001 7.31381714e-001 5.72988629e-001 6.93298280e-001
      6.74561858e-001 1.59129426e-001 3.36352766e-001 8.68573189e-002
      9.99739528e-001</_>
    <_>
      5.13806045e-001 2.81947166e-001 9.60746944e-001 7.48779476e-001
      9.63802040e-001 8.60226512e-001 7.47567654e-001 7.33124018e-001
      7.30916977e-001 2.90768713e-001 5.83519816e-001 1.95474833e-001
      9.99763966e-001</_>
    <_>
      4.39187050e-001 2.19692796e-001 9.77430701e-001 4.41553622e-001
      9.71531987e-001 6.45931423e-001 4.62043494e-001 7.69182026e-001
      7.56340921e-001 2.36235380e-001 4.96868223e-001 1.41425774e-001
      9.99866784e-001</_>
    <_>
      5.66449881e-001 1.37542725e-001 9.85822141e-001 5.16723692e-001
      9.83446300e-001 6.98495924e-001 5.37878513e-001 7.06741273e-001
      6.87886178e-001 1.66387290e-001 3.57485265e-001 9.25853029e-002
      9.99770045e-001</_>
    <_>
      5.21718800e-001 2.20715091e-001 9.67078924e-001 3.80838007e-001
      9.70473647e-001 6.04009211e-001 4.02264923e-001 7.09364653e-001
      6.98843420e-001 2.35908046e-001 5.04691124e-001 1.64559215e-001
      9.99709129e-001</_>
    <_>
      4.78860915e-001 2.49081969e-001 9.68781412e-001 5.48304319e-001
      9.65806186e-001 7.29723632e-001 5.60717046e-001 7.42355585e-001
      7.32931137e-001 2.59360820e-001 5.49681544e-001 1.77907676e-001
      9.99788225e-001</_>
    <_>
      4.30317491e-001 1.25144824e-001 9.90041733e-001 5.08267403e-001
      9.86103594e-001 6.92141593e-001 5.32977998e-001 7.70099640e-001
      7.47875512e-001 1.56960696e-001 3.26880872e-001 6.78359419e-002
      9.99905288e-001</_>
    <_>
      3.63014638e-001 2.06177965e-001 9.85930800e-001 4.55098987e-001
      9.73571777e-001 6.44122779e-001 4.76166755e-001 8.17424893e-001
      8.01256239e-001 2.24818379e-001 4.75415349e-001 1.14374258e-001
      9.99936402e-001</_>
    <_>
      3.81146520e-001 1.99776575e-001 9.85185623e-001 5.31916022e-001
      9.74725246e-001 7.01797605e-001 5.49776196e-001 8.35283577e-001
      8.17794085e-001 2.19669804e-001 4.63370234e-001 1.09555580e-001
      9.99951363e-001</_>
    <_>
      6.41869009e-001 1.29228592e-001 9.75901246e-001 5.26307762e-001
      9.85104382e-001 7.21341074e-001 5.48458040e-001 6.17112339e-001
      6.01900697e-001 1.59900263e-001 3.38384837e-001 1.04807466e-001
      9.99343574e-001</_>
    <_>
      5.84384441e-001 2.21369505e-001 9.65513051e-001 6.04943633e-001
      9.71045911e-001 7.72425771e-001 6.15644634e-001 6.72321022e-001
      6.64617240e-001 2.37307981e-001 5.01953602e-001 1.73622578e-001
      9.99557793e-001</_>
    <_>
      6.51370645e-001 2.24104658e-001 9.59468544e-001 4.96622860e-001
      9.71707821e-001 6.98539197e-001 5.12322485e-001 6.39133394e-001
      6.32708251e-001 2.41048381e-001 4.97951180e-001 1.78694174e-001
      9.99361634e-001</_>
    <_>
      3.53163123e-001 1.88551441e-001 9.89461482e-001 5.13991952e-001
      9.77407873e-001 6.87158108e-001 5.34494698e-001 8.46487105e-001
      8.27914238e-001 2.11562470e-001 4.35254067e-001 9.84757319e-002
      9.99961734e-001</_>
    <_>
      3.29510987e-001 2.77569562e-001 9.82882321e-001 5.67508876e-001
      9.60253656e-001 7.22804248e-001 5.78972399e-001 8.86721432e-001
      8.73320699e-001 2.81702787e-001 5.98994434e-001 1.56062931e-001
      9.99969602e-001</_>
    <_>
      4.46149856e-001 2.50513017e-001 9.70826089e-001 5.47373414e-001
      9.65645134e-001 7.27393568e-001 5.60111165e-001 7.62618065e-001
      7.52523303e-001 2.60632157e-001 5.51689088e-001 1.73216656e-001
      9.99834538e-001</_>
    <_>
      5.75788021e-001 2.06869066e-001 9.66570973e-001 5.28894424e-001
      9.74811018e-001 7.20613003e-001 5.45558453e-001 6.72153473e-001
      6.63009822e-001 2.27136672e-001 4.66444969e-001 1.52894467e-001
      9.99589384e-001</_>
    <_>
      3.99745762e-001 2.15783551e-001 9.90300000e-001 3.93323034e-001
      9.71377313e-001 5.74350953e-001 4.13775980e-001 8.31609964e-001
      8.15259516e-001 2.31951609e-001 4.96063352e-001 1.18300349e-001
      9.99946117e-001</_></support_vectors>
  <decision_functions>
    <_>
      <sv_count>77</sv_count>
      <rho>-8.8263118932783193e+000</rho>
      <alpha>
        1.0273806870975693e+002 3.1250000000000000e+002
        3.1250000000000000e+002 3.1250000000000000e+002
        3.1250000000000000e+002 3.1250000000000000e+002
        3.1250000000000000e+002 1.8912855406191017e+002
        3.1250000000000000e+002 3.6148406222537091e+001
        2.5143827037962697e+002 9.9363118762966451e+001
        1.8854988352258960e+002 3.1250000000000000e+002
        3.1250000000000000e+002 3.1250000000000000e+002
        3.1250000000000000e+002 2.8313386820135861e+002
        3.1250000000000000e+002 3.1250000000000000e+002
        3.1250000000000000e+002 3.1250000000000000e+002
        3.1250000000000000e+002 4.1219202155303705e+001
        3.1250000000000000e+002 3.1250000000000000e+002
        3.1250000000000000e+002 7.5142142960974212e+001
        3.1250000000000000e+002 3.1250000000000000e+002
        3.1250000000000000e+002 1.8365112408039201e+002
        3.1250000000000000e+002 3.1250000000000000e+002
        3.1250000000000000e+002 3.1250000000000000e+002
        3.1250000000000000e+002 3.1250000000000000e+002
        3.1250000000000000e+002 1.3201122273208489e+002
        3.1250000000000000e+002 -3.1250000000000000e+002
        -3.1250000000000000e+002 -3.1250000000000000e+002
        -3.1250000000000000e+002 -3.1250000000000000e+002
        -3.1250000000000000e+002 -3.1250000000000000e+002
        -3.1250000000000000e+002 -3.1250000000000000e+002
        -3.1250000000000000e+002 -3.1250000000000000e+002
        -2.4250647430752574e+002 -3.1250000000000000e+002
        -3.1250000000000000e+002 -3.1250000000000000e+002
        -3.1250000000000000e+002 -3.1250000000000000e+002
        -3.1250000000000000e+002 -3.1250000000000000e+002
        -3.1250000000000000e+002 -3.1250000000000000e+002
        -9.0017387481953676e+001 -3.1250000000000000e+002
        -3.1250000000000000e+002 -3.1250000000000000e+002
        -3.1250000000000000e+002 -3.1250000000000000e+002
        -3.1250000000000000e+002 -3.1250000000000000e+002
        -3.1250000000000000e+002 -3.1250000000000000e+002
        -3.1250000000000000e+002 -3.1250000000000000e+002
        -3.1250000000000000e+002 -3.1250000000000000e+002
        -3.1250000000000000e+002</alpha>
      <index>
        0 1 2 3 4 5 6 7 8 9 10 11 12 13 14 15 16 17 18 19 20 21 22 23 24
        25 26 27 28 29 30 31 32 33 34 35 36 37 38 39 40 41 42 43 44 45
        46 47 48 49 50 51 52 53 54 55 56 57 58 59 60 61 62 63 64 65 66
        67 68 69 70 71 72 73 74 75 76</index></_></decision_functions></my_svm>
</opencv_storage>
